svm_type epsilon_svr
kernel_type rbf
gamma 0.25
nr_class 2
total_sv 84
rho -0.655377
SV
-0.32 1:1.3573 2:1.9939 3:1.4538 
-0.32 1:0.6436 2:0.1936 3:1.001 
0.32 1:1.852 2:1.4084 3:1.6374 
0.32 1:1.4758 2:1.4869 3:0.5649 
-0.32 1:2.0687 2:1.8425 3:1.6162 
-0.32 1:1.1996 2:0.8163 3:1.2558 
0.32 1:1.2411 2:0.7972 3:1.0264 
-0.32 1:0.1496 2:-0.2234 3:-0.0649 
0.32 1:1.8813 2:1.4369 3:1.666 
0.1488498747357888 1:0.6988 2:0.8789 3:0.9136 
-0.32 1:0.8413 2:0.7798 3:0.5507 
-0.32 1:1.8419 2:1.5974 3:1.8356 
-0.32 1:2.0275 2:1.3459 3:2.2418 
-0.32 1:1.7212 2:1.7484 3:1.9493 
0.32 1:1.8443 2:1.4252 3:1.6048 
0.32 1:1.3018 2:1.4269 3:0.903 
-0.32 1:0.6193 2:1.3109 3:0.1125 
0.32 1:0.9988 2:1.313 3:0.7838 
-0.2911642341167318 1:1.9718 2:1.4372 3:1.8632 
0.32 1:1.8606 2:1.9832 3:2.3124 
0.32 1:1.5124 2:1.1987 3:1.2983 
-0.32 1:1.5852 2:2.0298 3:1.8007 
-0.32 1:1.4817 2:0.9125 3:1.1458 
0.32 1:1.2938 2:1.3779 3:1.5164 
-0.32 1:1.3602 2:1.1381 3:1.3709 
-0.32 1:1.832 2:1.543 3:2.0987 
-0.32 1:1.7029 2:1.6282 3:2.1599 
0.32 1:1.5106 2:1.452 3:1.5069 
0.32 1:1.3382 2:1.3582 3:1.5399 
0.32 1:1.8569 2:1.4126 3:1.6423 
-0.32 1:1.5301 2:1.4049 3:1.7447 
-0.32 1:1.1463 2:1.2573 3:0.8975 
-0.32 1:1.6575 2:-0.261 3:0.1473 
-0.32 1:1.3346 2:1.1036 3:1.6214 
0.32 1:1.8812 2:1.4375 3:2.3337 
-0.32 1:1.0132 2:1.1125 3:1.0561 
0.32 1:1.8565 2:1.4371 3:1.6668 
-0.32 1:1.4589 2:1.598 3:1.4015 
0.32 1:2.0403 2:1.4372 3:1.6665 
0.32 1:1.694 2:1.2504 3:1.4796 
-0.32 1:1.4274 2:0.1662 3:-0.0632 
-0.32 1:1.7341 2:1.5712 3:2.186 
-0.32 1:1.3696 2:1.0271 3:1.1806 
0.32 1:1.4505 2:1.2535 3:1.5907 
-0.32 1:0.7292 2:1.1732 3:0.9438 
-0.32 1:-0.8813 2:-0.4375 3:-0.6666 
0.32 1:1.6176 2:1.0964 3:1.4035 
-0.01435666949054738 1:1.4133 2:1.797 3:1.2886 
0.32 1:1.8709 2:1.7918 3:1.6566 
-0.32 1:-0.2796 2:0.0906 3:-0.7316 
0.32 1:1.8765 2:1.4327 3:1.662 
-0.32 1:1.0872 2:0.1967 3:1.1593 
0.32 1:0.4127 2:0.1656 3:0.1984 
-0.32 1:1.8232 2:1.8153 3:1.9411 
-0.32 1:1.2165 2:1.234 3:1.4741 
-0.1062258197994589 1:1.7262 2:1.4953 3:1.415 
-0.32 1:1.1522 2:1.5963 3:1.3668 
0.32 1:1.8721 2:1.9784 3:2.3243 
0.04524738756100394 1:1.6894 2:2.3365 3:1.6964 
0.32 1:0.4228 2:-0.1824 3:0.3987 
0.32 1:0.5387 2:0.197 3:0.4122 
-0.32 1:1.3409 2:1.0938 3:1.5959 
0.32 1:0.6469 2:1.0287 3:0.8125 
0.32 1:0.7941 2:0.6462 3:1.009 
0.32 1:1.4886 2:1.0454 3:1.274 
0.32 1:1.8812 2:1.4371 3:1.6667 
0.32 1:1.6331 2:1.4376 3:1.6666 
0.32 1:1.8494 2:1.4061 3:1.6355 
0.32 1:1.7492 2:1.0682 3:1.2968 
-0.32 1:1.5254 2:1.9297 3:1.3023 
0.32 1:0.8893 2:0.2891 3:1.1038 
0.32 1:1.8754 2:2.5563 3:1.6605 
-0.32 1:1.6227 2:1.4013 3:1.1706 
0.32 1:1.6278 2:1.1835 3:1.4125 
-0.32 1:1.4277 2:0.5399 3:0.3112 
0.32 1:1.2377 2:2.2844 3:1.3891 
0.32 1:0.7953 2:0.3515 3:1.1426 
-0.32 1:0.7784 2:0.3642 3:0.1348 
-0.32 1:1.4279 2:0.9426 3:0.7132 
-0.32 1:0.8832 2:0.6768 3:0.4471 
0.32 1:1.012 2:0.8695 3:0.3905 
0.2176494611099454 1:1.9579 2:1.4362 3:2.3319 
0.32 1:1.4964 2:1.4738 3:2.3104 
-0.32 1:1.141 2:1.0702 3:0.7651 
