svm_type epsilon_svr
kernel_type rbf
gamma 0.175583
nr_class 2
total_sv 82
rho -1.80204
SV
9.152788098958437 1:0.81 2:-0.8003 3:0.4496 4:1 5:0.3749 6:-0.7579 
-9.481481481481479 1:0.4943 2:-0.3145 3:-0.3031 4:1 5:-0.0988 6:1.182 
0.301397634343297 1:-1.7157 2:-0.8003 3:0.4622 4:0 5:-1.6443 6:-2.0512 
9.481481481481479 1:1.4414 2:0.6569 3:-0.9692 4:1 5:-0.6124 6:1.182 
-1.774177591573411 1:2.0728 2:0.8998 3:-0.8181 4:1 5:-0.0455 6:1.182 
-4.343820106553184 1:-1.0843 2:0.8998 3:-0.9115 4:0 5:-0.1278 6:-1.4046 
5.468178404540462 1:-0.7686 2:0.8998 3:1.9718 4:0 5:2.5241 6:-1.4046 
-9.481481481481479 1:-0.4529 2:3.0856 3:-1.1778 4:0 5:0.452 6:0.5353 
5.780293232524983 1:0.4943 2:0.1712 3:0.089 4:1 5:-1.2899 6:1.8286 
-4.813403000588661 1:-1.0843 2:1.3855 3:2.3019 4:0 5:3.0868 6:-1.4046 
-9.481481481481479 1:1.1257 2:0.6569 3:-0.0322 4:1 5:0.1289 6:1.182 
-3.050431191044869 1:-0.1372 2:-1.286 3:-1.0759 4:0 5:-0.1681 6:-0.7579 
9.481481481481479 1:0.1786 2:-0.8003 3:-0.6563 4:0 5:-0.0188 6:-0.1113 
-4.684566422195966 1:-0.1372 2:0.1712 3:-0.4034 4:0 5:0.3099 6:-1.4046 
-9.481481481481479 1:0.4943 2:-0.8003 3:0.6895 4:1 5:0.7465 6:-0.7579 
0.4709775364815245 1:-0.4529 2:1.1427 3:0.1558 4:0 5:1.2148 6:-0.1113 
4.101151110617886 1:-1.0843 2:-0.3145 3:-0.693 4:0 5:-0.0686 6:1.182 
1.402612505404999 1:1.7571 2:-1.0431 3:-0.2469 4:1 5:-0.5822 6:1.182 
8.496589412506381 1:-0.1372 2:0.1712 3:-0.4763 4:1 5:-0.0429 6:-0.1113 
-0.8429350608460059 1:-1.7157 2:-0.0717 3:0.4733 4:0 5:0.0809 6:-1.4046 
-9.481481481481479 1:0.1786 2:-0.5574 3:-0.1469 4:1 5:-0.637 6:-0.1113 
9.481481481481479 1:1.1257 2:1.1427 3:-0.6778 4:1 5:-0.2929 6:0.5353 
-9.481481481481479 1:0.4943 2:-0.8003 3:-0.0985 4:1 5:-0.0164 6:-0.1113 
0.3428710466897269 1:1.7571 2:1.1427 3:-0.6018 4:1 5:0.0178 6:1.182 
9.481481481481479 1:1.7571 2:0.8998 3:-0.6018 4:1 5:-0.1151 6:1.182 
9.481481481481479 1:-0.4529 2:-0.3145 3:0.0404 4:1 5:-0.4467 6:0.5353 
9.481481481481479 1:0.81 2:-0.8003 3:0.5272 4:1 5:0.1352 6:-0.1113 
3.677201288297292 1:-0.7686 2:-1.5289 3:-0.0608 4:1 5:-1.4804 6:-0.7579 
5.075336849998795 1:0.4943 2:-0.0717 3:-0.6138 4:0 5:-1.0683 6:-0.7579 
-7.574294117913206 1:0.1786 2:-1.286 3:-0.3308 4:0 5:0.4505 6:-0.7579 
-9.481481481481479 1:0.4943 2:-0.3145 3:1.0318 4:0 5:1.1403 6:-0.7579 
-9.481481481481479 1:1.4414 2:0.8998 3:-1.0939 4:1 5:-0.169 6:0.5353 
5.66153502411214 1:-0.7686 2:-0.5574 3:0.7313 4:2 5:-0.5298 6:-0.1113 
-9.481481481481479 1:-0.1372 2:-0.3145 3:0.4866 4:2 5:-0.0207 6:-0.1113 
9.481481481481479 1:-0.1372 2:-0.0717 3:-0.6325 4:1 5:-0.7088 6:-0.7579 
-0.256518540605825 1:-1.4 2:0.8998 3:-1.5814 4:0 5:-0.5416 6:-0.1113 
9.18294849886157 1:-0.4529 2:2.8427 3:-0.4471 4:0 5:0.9497 6:-0.1113 
-0.01711954613785689 1:2.0728 2:0.8998 3:1.592 4:1 5:0.7001 6:-0.7579 
-0.02839874048193806 1:1.7571 2:0.1712 3:0.0962 4:1 5:-1.4036 6:-1.4046 
-9.481481481481479 1:-0.1372 2:0.6569 3:-1.0224 4:1 5:-0.9909 6:-0.7579 
-0.542588106798616 1:-1.0843 2:-1.5289 3:0.9071 4:1 5:-2.8004 6:-2.0512 
6.536125164316535 1:0.1786 2:-1.0431 3:-0.5621 4:1 5:-0.6221 6:-0.1113 
-9.481481481481479 1:0.1786 2:0.1712 3:-0.1136 4:0 5:0.8609 6:-0.7579 
9.481481481481479 1:0.4943 2:-0.5574 3:0.1752 4:0 5:0.5548 6:-0.7579 
-4.057527231396953 1:0.4943 2:0.4141 3:1.0622 4:1 5:0.1563 6:-0.7579 
-2.642628124575003 1:-0.4529 2:2.357 3:-0.0066 4:0 5:-0.2599 6:3.1218 
9.186264140867754 1:-0.1372 2:0.4141 3:-0.7543 4:0 5:0.3719 6:-0.7579 
0.7393989673683911 1:-1.7157 2:1.6284 3:-0.3595 4:0 5:0.0004 6:-1.4046 
1.813423818059214 1:-2.0314 2:1.3855 3:-0.8193 4:0 5:-0.8058 6:-0.7579 
-4.988858358007873 1:0.4943 2:1.8713 3:-1.4789 4:0 5:-0.1705 6:1.8286 
2.35919562199665 1:0.4943 2:-0.8003 3:0.2529 4:2 5:-0.5308 6:-0.1113 
-9.481481481481479 1:-0.4529 2:-0.8003 3:0.3498 4:1 5:0.0913 6:-0.1113 
5.924009827956472 1:0.1786 2:3.0856 3:-1.3305 4:0 5:0.3064 6:1.8286 
4.688051182548665 1:-0.7686 2:-0.3145 3:0.6764 4:0 5:0.4414 6:-0.1113 
0.9063692257567898 1:0.81 2:-0.5574 3:1.3732 4:0 5:1.2647 6:-0.7579 
-3.22914223152882 1:-1.4 2:-1.286 3:-0.8379 4:0 5:-0.983 6:1.8286 
3.773415310024608 1:0.1786 2:-1.286 3:0.0768 4:2 5:-0.4296 6:0.5353 
-9.481481481481479 1:0.4943 2:-0.3145 3:0.888 4:1 5:1.018 6:-0.1113 
9.481481481481479 1:0.4943 2:0.1712 3:0.9154 4:1 5:0.9019 6:-0.7579 
-1.521950898380061 1:-0.7686 2:0.4141 3:-0.3864 4:0 5:-1.2123 6:2.4752 
8.962840768047103 1:0.4943 2:0.1712 3:0.8962 4:0 5:1.1997 6:-0.1113 
2.358163305598649 1:-1.7157 2:-1.7717 3:-1.2942 4:0 5:-1.0707 6:-0.1113 
9.481481481481479 1:-0.7686 2:-0.0717 3:0.3132 4:0 5:1.1316 6:-0.7579 
2.487540297310559 1:-1.7157 2:1.8713 3:-1.0048 4:0 5:-0.6781 6:-1.4046 
-7.178558390108283 1:-0.1372 2:-0.8003 3:-0.6325 4:0 5:-0.68 6:-0.1113 
-1.455458746274386 1:2.0728 2:0.8998 3:-0.6625 4:1 5:-0.1256 6:0.5353 
0.7297875128530951 1:0.1786 2:0.4141 3:0.6165 4:1 5:0.8731 6:-0.7579 
-1.597628639579542 1:-1.0843 2:-0.0717 3:1.9643 4:0 5:2.0766 6:-1.4046 
-6.531026459522795 1:1.1257 2:-0.0717 3:-0.5166 4:1 5:-0.5182 6:1.8286 
2.903257445358466 1:-0.7686 2:-2.2575 3:-1.036 4:0 5:-1.1007 6:-0.1113 
-1.886681127791632 1:-0.1372 2:-0.3145 3:-0.1459 4:0 5:0.4104 6:-0.1113 
9.044602394189599 1:0.1786 2:0.1712 3:-0.7392 4:1 5:-0.3131 6:-0.1113 
-9.481481481481479 1:-1.0843 2:-1.286 3:-0.6719 4:1 5:-1.1629 6:-0.1113 
9.481481481481479 1:0.81 2:-0.0717 3:0.5673 4:1 5:0.0071 6:1.182 
4.41961017090113 1:0.4943 2:-0.0717 3:0.1675 4:1 5:0.1558 6:0.5353 
-9.481481481481479 1:-1.0843 2:1.1427 3:-0.1049 4:0 5:0.779 6:-0.1113 
3.442147205784051 1:0.1786 2:-0.3145 3:-1.0586 4:0 5:-1.4387 6:1.8286 
-9.481481481481479 1:0.1786 2:-0.3145 3:-0.0197 4:0 5:0.0878 6:-0.1113 
-9.481481481481479 1:0.81 2:0.4141 3:-0.1941 4:1 5:-0.6345 6:0.5353 
-9.481481481481479 1:0.81 2:0.1712 3:-0.2812 4:1 5:-0.9321 6:0.5353 
9.481481481481479 1:-0.1372 2:-0.5574 3:0.1239 4:0 5:1.0295 6:-0.7579 
-9.481481481481479 1:-0.1372 2:0.4141 3:0.3408 4:0 5:1.1833 6:-0.7579 
