svm_type epsilon_svr
kernel_type rbf
gamma 0.222222
nr_class 2
total_sv 46
rho -1.98432
SV
-92.60592253280507 1:0.2613 2:-0.1214 3:3 4:1 
11.67154641429447 1:-0.496 2:0.866 3:2 4:0 
19.61341226293121 1:-1.2008 2:-0.7138 3:0 4:0 
0.324344918800144 1:-0.0714 2:-0.5163 3:6 4:4 
-16.25387855408213 1:-0.0933 2:-0.9113 3:4 4:2 
12.32834220497804 1:1.0931 2:1.2609 3:2 4:0 
36.24253224075795 1:0.9005 2:0.866 3:1 4:0 
-115.330078125 1:0.9574 2:0.6685 3:1 4:0 
-21.35550358764652 1:-0.96 2:0.0761 3:1 4:0 
9.507022173696591 1:-0.3121 2:-1.1088 3:2 4:2 
0.2512525899207119 1:0.7385 2:1.8533 3:2 4:2 
79.22953849984654 1:0.2832 2:-0.1214 3:2 4:0 
-99.11380619837139 1:0.3927 2:0.0761 3:1 4:0 
-8.891388226051173 1:-0.137 2:-1.1088 3:1 4:1 
8.937533001738224 1:-0.0714 2:0.6685 3:4 4:0 
-115.330078125 1:-0.1151 2:0.0761 3:2 4:0 
24.79116055354049 1:-0.2071 2:-0.1214 3:0 4:0 
32.36828075289333 1:-0.6186 2:0.2735 3:2 4:0 
1.718330681910991 1:-1.8224 2:-1.7012 3:2 4:0 
14.03745657447698 1:0.3445 2:-1.3062 3:4 4:2 
0.935274268862925 1:1.0799 2:-0.5163 3:2 4:1 
-40.68596053703212 1:-0.6974 2:-0.7138 3:0 4:0 
115.330078125 1:0.5853 2:0.2735 3:1 4:0 
-5.723440924402097 1:-0.2071 2:-0.7138 3:3 4:0 
-2.427423129907833 1:-1.7042 2:-1.5037 3:6 4:5 
115.330078125 1:-0.6186 2:-0.5163 3:1 4:0 
28.26170382035578 1:1.2157 2:0.866 3:1 4:0 
-2.960725620970813 1:-0.0276 2:1.4584 3:4 4:2 
-3.94245852092418 1:1.1981 2:2.2483 3:2 4:0 
0.1828115736772652 1:-1.6648 2:-1.1088 3:0 4:1 
7.529193083889319 1:-0.1239 2:-0.5163 3:2 4:1 
14.14905934508488 1:0.2394 2:2.2483 3:3 4:0 
7.036209739270896 1:-0.6011 2:-0.1214 3:2 4:0 
0.2518566839350531 1:-1.8268 2:-1.1088 3:3 4:0 
0.2085732160928194 1:0.5065 2:0.6685 3:3 4:3 
-0.3705911060880126 1:1.741 2:3.4331 3:2 4:0 
46.05377862823525 1:-0.2246 2:-0.3189 3:1 4:0 
-23.97287009644344 1:0.2088 2:1.6559 3:3 4:0 
-0.3970148395655343 1:0.5503 2:-0.3189 3:5 4:3 
92.23998912939592 1:0.0906 2:-0.1214 3:3 4:1 
-10.66601969307012 1:-1.3628 2:-0.9113 3:2 4:1 
9.943315775363647 1:0.1256 2:0.0761 3:4 4:2 
-4.048316786353237 1:0.2832 2:0.0761 3:4 4:0 
-10.73022705231302 1:0.0556 2:-0.7138 3:3 4:2 
1.66310739707711 1:1.5878 2:0.6685 3:4 4:0 
-115.330078125 1:-0.5398 2:-0.5163 3:1 4:0 
