svm_type epsilon_svr
kernel_type rbf
gamma 0.225254
nr_class 2
total_sv 71
rho -1.3475
SV
-76.88671875 1:-0.5644 2:0.2613 3:0.0591 4:-0.0988 
7.613133489881806 1:-0.8608 2:-0.496 3:-1.3831 4:-1.6443 
76.88671875 1:-1.1128 2:0.0468 3:1.1408 4:-0.6124 
24.0218424953616 1:-1.1128 2:0.4583 3:1.8619 4:-0.0455 
9.563285538661445 1:-0.4607 2:-1.2008 3:0.0591 4:2.5241 
-29.10919895619879 1:-0.1198 2:-1.9187 3:1.8619 4:0.452 
27.20283253727682 1:-0.0901 2:-0.0714 3:0.4197 4:-1.2899 
-7.08869199505446 1:-0.6682 2:-1.5116 3:0.4197 4:3.0868 
-37.46303574772879 1:-0.4014 2:-0.0933 3:1.1408 4:0.1289 
-11.13903617115193 1:-1.1128 2:1.0931 3:-1.0226 4:-0.1681 
76.88671875 1:-0.5496 2:0.9005 3:-0.662 4:-0.0188 
-38.65558222060856 1:-0.3569 2:0.9574 3:-0.3015 4:0.7465 
10.40799335960361 1:0.9918 2:-1.1308 3:0.4197 4:1.2148 
-0.009900296354523715 1:-0.6978 2:3.654 3:0.0591 4:-0.5822 
47.84018407494055 1:-0.6385 2:-0.2946 3:0.0591 4:-0.0429 
-34.25743843177928 1:-0.1198 2:-0.96 3:-1.0226 4:0.0809 
-30.70729730103632 1:-0.1939 2:0.6072 3:-0.3015 4:-0.637 
76.88671875 1:-0.4458 2:-0.3121 3:1.5014 4:-0.2929 
-17.75023365983806 1:1.5846 2:0.8348 3:-0.3015 4:-0.0164 
-20.94015610378108 1:-0.4607 2:0.2088 3:1.8619 4:-0.1151 
76.88671875 1:0.0284 2:-0.1064 3:-0.662 4:-0.4467 
21.36482289542696 1:-0.683 2:1.5177 3:-0.3015 4:0.1352 
3.564037917963848 1:1.0066 2:0.2832 3:0.0591 4:-1.0683 
-15.85117901746397 1:-1.0535 2:1.1369 3:-0.662 4:0.4505 
-76.88671875 1:-1.1128 2:-0.137 3:1.5014 4:-0.169 
-10.75097521305712 1:-0.0901 2:-0.2465 3:-0.662 4:-0.6789 
-13.42762098388486 1:-1.1128 2:-0.0714 3:-1.0226 4:-0.5298 
-76.88671875 1:0.3989 2:-0.1151 3:-0.3015 4:-0.0207 
12.64738277421741 1:-0.8015 2:-0.2071 3:-0.3015 4:-0.7088 
62.27299061486303 1:0.0581 2:-0.6186 3:-0.662 4:0.5763 
31.39470059833409 1:0.0581 2:-1.8224 3:1.8619 4:0.9497 
2.014814610622286 1:0.7398 2:0.3445 3:1.8619 4:0.7001 
-4.345585182552319 1:-0.4755 2:1.0799 3:1.1408 4:-1.4036 
-36.25214598351298 1:-1.1128 2:-0.6974 3:0.4197 4:-0.9909 
-0.6677308573245295 1:0.7843 2:0.4933 3:-1.7437 4:-2.8004 
-4.411408522988634 1:-1.1128 2:1.023 3:-0.662 4:-0.6221 
12.67728540406916 1:1.7773 2:0.5853 3:0.0591 4:0.5548 
-1.604922298316213 1:1.5105 2:-0.2071 3:0.7802 4:0.1563 
-13.53777800910693 1:1.1845 2:-1.7042 3:1.5014 4:-0.2599 
39.97442353996364 1:0.6954 2:-0.6186 3:0.0591 4:0.3719 
18.86279008173999 1:-1.1128 2:-1.7392 3:0.0591 4:-0.8058 
2.556899301537907 1:-0.9794 2:-1.2008 3:1.8619 4:-0.1705 
7.604858840753927 1:2.2812 2:1.2157 3:-0.3015 4:-0.5308 
-76.88671875 1:0.4582 2:0.0381 3:-0.662 4:0.0913 
2.734498525916516 1:-1.1128 2:-1.6911 3:2.5831 4:0.3064 
7.840928791110446 1:0.2211 2:-0.5442 3:-0.3015 4:-0.6593 
-6.038201711184018 1:-1.1128 2:-0.0276 3:-1.7437 4:-0.983 
-7.036309982740458 1:-0.3569 2:1.3645 3:-1.0226 4:-0.4296 
-29.01820323912207 1:-0.9498 2:-0.5617 3:0.0591 4:0.86 
34.30000949773117 1:0.8139 2:-0.1545 3:0.4197 4:0.9019 
-34.46244761847838 1:0.0877 2:-0.9513 3:0.0591 4:-1.2123 
46.79261600341993 1:-0.6237 2:-0.1239 3:0.4197 4:1.1997 
7.321329234999244 1:1.8069 2:0.2394 3:-2.4648 4:-1.0707 
8.157085442593342 1:0.5175 2:-0.6011 3:-0.662 4:1.1316 
15.27447216955607 1:1.0362 2:-1.8268 3:0.4197 4:-0.6781 
11.67796129295618 1:1.1993 2:0.5065 3:-0.662 4:-0.68 
-3.293777577138386 1:0.1025 2:0.4102 3:1.8619 4:-0.1256 
-33.58920812284252 1:1.2734 2:-0.3822 3:0.4197 4:0.8731 
-3.298350750551637 1:1.7328 2:0.5327 3:0.7802 4:-0.5182 
1.168496928756831 1:-1.1128 2:1.741 3:-2.1043 4:-1.1007 
74.29413240861273 1:0.9325 2:0.1475 3:-0.3015 4:0.4104 
41.63174180210396 1:-1.0239 2:-0.2246 3:0.0591 4:-0.3131 
-9.581269032957316 1:2.2664 2:0.2088 3:-1.7437 4:-1.1629 
32.28179941480839 1:-1.098 2:0.5503 3:0.4197 4:0.0071 
-17.62456123564041 1:-0.0457 2:-1.3628 3:0.4197 4:0.779 
-12.2351988164982 1:2.3998 2:0.2832 3:0.0591 4:0.0878 
-66.43481912844103 1:-1.098 2:0.0556 3:0.7802 4:-0.6345 
2.796208846304596 1:3.2149 2:0.1169 3:0.4197 4:-0.9321 
-5.637852318517102 1:-1.1128 2:1.5878 3:0.0591 4:-0.254 
-3.608737896635597 1:1.6143 2:0.0162 3:-0.662 4:1.0295 
-68.02670405160099 1:0.3693 2:-0.5398 3:0.0591 4:1.1833 
